{
  "input_nodes": 5,
  "hidden_nodes": 8,
  "output_nodes": 1,
  "weights_ih": {
    "rows": 8,
    "cols": 5,
    "data": [
      [
        0.7281813856023058,
        -0.7425789061626094,
        -0.25777595226328154,
        0.8152708199036952,
        -0.41044964600318257
      ],
      [
        -0.5493402338128334,
        -0.8633524279673426,
        -0.6191268648095467,
        0.5219953319583114,
        1.186427539773813
      ],
      [
        -0.9098847698458673,
        -1.3913575493500243,
        0.12103335227986965,
        0.07224669809375732,
        -0.480828571411685
      ],
      [
        0.8258829253631823,
        0.17046570248458837,
        0.9595611753520814,
        1.007916663442768,
        -0.9045874100283435
      ],
      [
        0.41236346020688663,
        0.7033022963737534,
        -0.8686604319284373,
        -0.6549480899595604,
        -0.07270810081378884
      ],
      [
        0.5429264565914881,
        -0.2853528288612953,
        -0.024389158325491215,
        0.5304944119801231,
        0.05344341373760809
      ],
      [
        0.5509062309822973,
        -0.7225864664475476,
        -0.21044775321137776,
        0.4864231481942818,
        0.35297004681148764
      ],
      [
        0.7510043332171654,
        -0.40181077949291594,
        -0.41379921775947703,
        -1.2121706621288946,
        -0.4371525669923517
      ]
    ]
  },
  "weights_ho": {
    "rows": 1,
    "cols": 8,
    "data": [
      [
        -1.141139945975559,
        -0.5311201920754496,
        -0.6016401769075057,
        0.2067833815220066,
        0.2580662122758257,
        0.8092631459806418,
        0.8347576464577059,
        1.0348236649898888
      ]
    ]
  },
  "bias_h": {
    "rows": 8,
    "cols": 1,
    "data": [
      [
        -0.001631763717190804
      ],
      [
        0.37667113273249186
      ],
      [
        0.295868232264611
      ],
      [
        0.41324309580237
      ],
      [
        -0.40354514894932275
      ],
      [
        0.7792030922948193
      ],
      [
        -0.3340321407824792
      ],
      [
        -0.15711287798844517
      ]
    ]
  },
  "bias_o": {
    "rows": 1,
    "cols": 1,
    "data": [
      [
        -0.4812544661280107
      ]
    ]
  },
  "learning_rate": 0.1,
  "activation_function": {}
}
