{
  "input_nodes": 4,
  "hidden_nodes": 8,
  "output_nodes": 2,
  "weights_ih": {
    "rows": 8,
    "cols": 4,
    "data": [
      [
        -0.18428781148702636,
        -0.8805891369422758,
        3.268720719469932,
        -0.40674865298236085
      ],
      [
        -0.14805107390172098,
        0.5360370182109501,
        0.7140327373811776,
        0.36275970849731054
      ],
      [
        0.46301048343667806,
        1.3184062424671434,
        0.40444258536853644,
        0.17126125703321074
      ],
      [
        -0.45662841459447223,
        -0.6341773803091364,
        -0.35136798935000785,
        0.3906692838314024
      ],
      [
        -0.07369570615640471,
        1.0243481316614598,
        -0.6240126479240979,
        -0.09632734440096223
      ],
      [
        0.18676395512301708,
        -0.2728351837917836,
        0.5035758559731183,
        -0.14145750675612742
      ],
      [
        -2.6013869165862085,
        1.8909039304287543,
        0.8011554804640715,
        -0.3065659459296506
      ],
      [
        0.1847039584452093,
        -0.6354259110130132,
        -0.06270139999540134,
        0.04411597159733006
      ]
    ]
  },
  "weights_ho": {
    "rows": 2,
    "cols": 8,
    "data": [
      [
        1.2784058594553254,
        -0.45734297916027755,
        -1.4865404007313814,
        -0.08009332885799603,
        0.8350746797349469,
        0.3515102352897378,
        -1.4199227310589424,
        1.1854107551875355
      ],
      [
        0.8065544488473567,
        0.8695602960744118,
        1.2366417583285956,
        -0.02912783829753317,
        0.5492788880417928,
        -0.2722134152305664,
        0.38847273235444946,
        -0.015478197000422444
      ]
    ]
  },
  "bias_h": {
    "rows": 8,
    "cols": 1,
    "data": [
      [
        -0.7502819637716663
      ],
      [
        0.40883489106189597
      ],
      [
        -0.2953901149637612
      ],
      [
        -1.1059145879278356
      ],
      [
        0.5471080955216291
      ],
      [
        0.4444998674003216
      ],
      [
        -0.3616297412749411
      ],
      [
        -1.6602788717432377
      ]
    ]
  },
  "bias_o": {
    "rows": 2,
    "cols": 1,
    "data": [
      [
        -0.6707685276778261
      ],
      [
        -0.20836289733539057
      ]
    ]
  },
  "learning_rate": 0.1,
  "activation_function": {}
}
