{
  "input_nodes": 4,
  "hidden_nodes": 8,
  "output_nodes": 2,
  "weights_ih": {
    "rows": 8,
    "cols": 4,
    "data": [
      [
        3.2082414626072686,
        0.5312779035636198,
        0.31384552156562107,
        -0.4569488387710015
      ],
      [
        -0.3155805503847889,
        -0.0800638451284553,
        0.26449250977616484,
        -0.37105923285052395
      ],
      [
        0.521238996155673,
        -0.5262014803628015,
        -0.2534772097821273,
        0.5878068578545391
      ],
      [
        -0.2891004769095532,
        2.9978500616279096,
        0.13737496039690486,
        -0.012989217345945077
      ],
      [
        0.03431578953532006,
        -1.1375576994221437,
        -0.14297711947637884,
        0.6659865634115891
      ],
      [
        0.5326407280462189,
        0.07779599140351615,
        0.09689126223792804,
        -0.9634508065918067
      ],
      [
        0.29374128816976347,
        0.8769256929027556,
        -3.067438841213723,
        0.12554471132536804
      ],
      [
        0.4147130460989623,
        -1.8128281291125872,
        0.15297432047667014,
        -0.82849169963655
      ]
    ]
  },
  "weights_ho": {
    "rows": 2,
    "cols": 8,
    "data": [
      [
        0.47649139962145176,
        -0.3963265852610963,
        0.3373583508379036,
        -1.3111829232552037,
        0.38363320444863996,
        -0.331764724091075,
        -0.5405410744147744,
        0.5410601851965436
      ],
      [
        0.09897469277823863,
        0.43850725916673594,
        0.4720796574127838,
        0.12247496551486314,
        -0.5820156140776052,
        0.38844460256941427,
        -0.3293957104585285,
        0.6064091181329088
      ]
    ]
  },
  "bias_h": {
    "rows": 8,
    "cols": 1,
    "data": [
      [
        0.06054191567631794
      ],
      [
        0.6189634749664332
      ],
      [
        -0.05271885199582937
      ],
      [
        -1.097422518078926
      ],
      [
        0.6368756652786828
      ],
      [
        -0.11859672624381942
      ],
      [
        0.3946716808063486
      ],
      [
        0.3449779712894399
      ]
    ]
  },
  "bias_o": {
    "rows": 2,
    "cols": 1,
    "data": [
      [
        -0.7467215267321617
      ],
      [
        -0.07023710374507935
      ]
    ]
  },
  "learning_rate": 0.1,
  "activation_function": {}
}
